<?xml version="1.0"?>
<opencv_storage>
<cascade>
  <stageType>BOOST</stageType>
  <featureType>HAAR</featureType>
  <height>30</height>
  <width>20</width>
  <stageParams>
    <boostType>GAB</boostType>
    <minHitRate>9.9500000476837158e-01</minHitRate>
    <maxFalseAlarm>5.0000000000000000e-01</maxFalseAlarm>
    <weightTrimRate>9.4999998807907104e-01</weightTrimRate>
    <maxDepth>1</maxDepth>
    <maxWeakCount>100</maxWeakCount></stageParams>
  <featureParams>
    <maxCatCount>0</maxCatCount>
    <featSize>1</featSize>
    <mode>BASIC</mode></featureParams>
  <stageNum>20</stageNum>
  <stages>
    <!-- stage 0 -->
    <_>
      <maxWeakCount>3</maxWeakCount>
      <stageThreshold>-4.3172633647918701e-01</stageThreshold>
      <weakClassifiers>
        <_>
          <internalNodes>
            0 -1 44 -3.3525742590427399e-02</internalNodes>
          <leafValues>
            8.5467129945755005e-01 -7.4193549156188965e-01</leafValues></_>
        <_>
          <internalNodes>
            0 -1 65 -8.9215338230133057e-02</internalNodes>
          <leafValues>
            9.0254968404769897e-01 -2.7400571107864380e-01</leafValues></_>
        <_>
          <internalNodes>
            0 -1 17 -2.0508520305156708e-02</internalNodes>
          <leafValues>
            6.9631761312484741e-01 -5.9234052896499634e-01</leafValues></_></weakClassifiers></_>
    <!-- stage 1 -->
    <_>
      <maxWeakCount>4</maxWeakCount>
      <stageThreshold>9.3777336180210114e-02</stageThreshold>
      <weakClassifiers>
        <_>
          <internalNodes>
            0 -1 41 -4.0117107331752777e-02</internalNodes>
          <leafValues>
            8.1960785388946533e-01 -2.4409449100494385e-01</leafValues></_>
        <_>
          <internalNodes>
            0 -1 33 -1.0975373443216085e-03</internalNodes>
          <leafValues>
            -8.5974949598312378e-01 4.0742790699005127e-01</leafValues></_>
        <_>
          <internalNodes>
            0 -1 53 1.5797598287463188e-02</internalNodes>
          <leafValues>
            -3.3610555529594421e-01 8.4729748964309692e-01</leafValues></_>
        <_>
          <internalNodes>
            0 -1 39 -8.8625232456251979e-04</internalNodes>
          <leafValues>
            -7.9715287685394287e-01 3.8378617167472839e-01</leafValues></_></weakClassifiers></_>
    <!-- stage 2 -->
    <_>
      <maxWeakCount>4</maxWeakCount>
      <stageThreshold>4.7568094730377197e-01</stageThreshold>
      <weakClassifiers>
        <_>
          <internalNodes>
            0 -1 60 -3.5756371915340424e-02</internalNodes>
          <leafValues>
            7.4394464492797852e-01 -3.9784947037696838e-01</leafValues></_>
        <_>
          <internalNodes>
            0 -1 20 1.8254183232784271e-02</internalNodes>
          <leafValues>
            -3.7606513500213623e-01 6.5439361333847046e-01</leafValues></_>
        <_>
          <internalNodes>
            0 -1 54 4.2898468673229218e-02</internalNodes>
          <leafValues>
            -3.7270909547805786e-01 7.8266239166259766e-01</leafValues></_>
        <_>
          <internalNodes>
            0 -1 37 -5.8634728193283081e-03</internalNodes>
          <leafValues>
            5.9184592962265015e-01 -4.7034445405006409e-01</leafValues></_></weakClassifiers></_>
    <!-- stage 3 -->
    <_>
      <maxWeakCount>5</maxWeakCount>
      <stageThreshold>-3.2478988170623779e-01</stageThreshold>
      <weakClassifiers>
        <_>
          <internalNodes>
            0 -1 10 1.6901947557926178e-02</internalNodes>
          <leafValues>
            5.9090906381607056e-01 -1.</leafValues></_>
        <_>
          <internalNodes>
            0 -1 47 2.9424212872982025e-02</internalNodes>
          <leafValues>
            -4.7393581271171570e-01 5.9159964323043823e-01</leafValues></_>
        <_>
          <internalNodes>
            0 -1 81 4.0936968289315701e-03</internalNodes>
          <leafValues>
            -5.3068679571151733e-01 5.7855248451232910e-01</leafValues></_>
        <_>
          <internalNodes>
            0 -1 73 5.8468187489779666e-05</internalNodes>
          <leafValues>
            -4.6685048937797546e-01 5.8346384763717651e-01</leafValues></_>
        <_>
          <internalNodes>
            0 -1 46 -3.2000131905078888e-03</internalNodes>
          <leafValues>
            6.5152728557586670e-01 -5.0976133346557617e-01</leafValues></_></weakClassifiers></_>
    <!-- stage 4 -->
    <_>
      <maxWeakCount>5</maxWeakCount>
      <stageThreshold>1.1849636211991310e-02</stageThreshold>
      <weakClassifiers>
        <_>
          <internalNodes>
            0 -1 84 -6.9073207676410675e-02</internalNodes>
          <leafValues>
            -1. 6.0000002384185791e-01</leafValues></_>
        <_>
          <internalNodes>
            0 -1 43 -1.0274599480908364e-04</internalNodes>
          <leafValues>
            5.5980694293975830e-01 -3.7491744756698608e-01</leafValues></_>
        <_>
          <internalNodes>
            0 -1 77 -2.4099647998809814e-03</internalNodes>
          <leafValues>
            8.8170969486236572e-01 -3.0780199170112610e-01</leafValues></_>
        <_>
          <internalNodes>
            0 -1 59 -3.3237803727388382e-03</internalNodes>
          <leafValues>
            7.0800977945327759e-01 -3.6445644497871399e-01</leafValues></_>
        <_>
          <internalNodes>
            0 -1 26 6.6792956204153597e-05</internalNodes>
          <leafValues>
            -4.7569888830184937e-01 5.7411831617355347e-01</leafValues></_></weakClassifiers></_>
    <!-- stage 5 -->
    <_>
      <maxWeakCount>5</maxWeakCount>
      <stageThreshold>-1.2032271176576614e-01</stageThreshold>
      <weakClassifiers>
        <_>
          <internalNodes>
            0 -1 23 3.6874994635581970e-02</internalNodes>
          <leafValues>
            6.1849713325500488e-01 -1.</leafValues></_>
        <_>
          <internalNodes>
            0 -1 24 -1.0163448750972748e-01</internalNodes>
          <leafValues>
            -7.7147543430328369e-01 4.3729293346405029e-01</leafValues></_>
        <_>
          <internalNodes>
            0 -1 66 -2.6505596935749054e-02</internalNodes>
          <leafValues>
            8.9291054010391235e-01 -3.5024899244308472e-01</leafValues></_>
        <_>
          <internalNodes>
            0 -1 69 5.9319974388927221e-04</internalNodes>
          <leafValues>
            -3.0070644617080688e-01 8.5963255167007446e-01</leafValues></_>
        <_>
          <internalNodes>
            0 -1 55 6.0719190514646471e-05</internalNodes>
          <leafValues>
            -4.4072994589805603e-01 6.8361103534698486e-01</leafValues></_></weakClassifiers></_>
    <!-- stage 6 -->
    <_>
      <maxWeakCount>5</maxWeakCount>
      <stageThreshold>7.7419415116310120e-02</stageThreshold>
      <weakClassifiers>
        <_>
          <internalNodes>
            0 -1 11 3.7277545779943466e-02</internalNodes>
          <leafValues>
            6.5432101488113403e-01 -5.8620691299438477e-01</leafValues></_>
        <_>
          <internalNodes>
            0 -1 34 9.6387956291437149e-03</internalNodes>
          <leafValues>
            -4.3914264440536499e-01 5.3592461347579956e-01</leafValues></_>
        <_>
          <internalNodes>
            0 -1 29 -5.5944221094250679e-04</internalNodes>
          <leafValues>
            6.4189428091049194e-01 -4.2445603013038635e-01</leafValues></_>
        <_>
          <internalNodes>
            0 -1 8 -2.9262809548527002e-03</internalNodes>
          <leafValues>
            7.7474075555801392e-01 -3.4265202283859253e-01</leafValues></_>
        <_>
          <internalNodes>
            0 -1 12 7.0489484642166644e-05</internalNodes>
          <leafValues>
            -3.4571817517280579e-01 7.5968426465988159e-01</leafValues></_></weakClassifiers></_>
    <!-- stage 7 -->
    <_>
      <maxWeakCount>4</maxWeakCount>
      <stageThreshold>1.7736810445785522e-01</stageThreshold>
      <weakClassifiers>
        <_>
          <internalNodes>
            0 -1 14 -7.8810732811689377e-03</internalNodes>
          <leafValues>
            -1. 5.8640223741531372e-01</leafValues></_>
        <_>
          <internalNodes>
            0 -1 36 -4.1588100430089980e-05</internalNodes>
          <leafValues>
            7.4675136804580688e-01 -2.6463773846626282e-01</leafValues></_>
        <_>
          <internalNodes>
            0 -1 86 -4.9725524149835110e-03</internalNodes>
          <leafValues>
            -7.5556915998458862e-01 3.4976220130920410e-01</leafValues></_>
        <_>
          <internalNodes>
            0 -1 71 8.7033864110708237e-04</internalNodes>
          <leafValues>
            -4.0021640062332153e-01 7.3421448469161987e-01</leafValues></_></weakClassifiers></_>
    <!-- stage 8 -->
    <_>
      <maxWeakCount>5</maxWeakCount>
      <stageThreshold>2.7300223708152771e-01</stageThreshold>
      <weakClassifiers>
        <_>
          <internalNodes>
            0 -1 3 -1.5508085489273071e-01</internalNodes>
          <leafValues>
            -6.5957444906234741e-01 6.2388062477111816e-01</leafValues></_>
        <_>
          <internalNodes>
            0 -1 28 -7.8037235653027892e-05</internalNodes>
          <leafValues>
            7.4097824096679688e-01 -2.8752815723419189e-01</leafValues></_>
        <_>
          <internalNodes>
            0 -1 68 2.4342848919332027e-03</internalNodes>
          <leafValues>
            -2.3317943513393402e-01 8.9759367704391479e-01</leafValues></_>
        <_>
          <internalNodes>
            0 -1 78 6.5664853900671005e-04</internalNodes>
          <leafValues>
            -4.3143177032470703e-01 6.2665820121765137e-01</leafValues></_>
        <_>
          <internalNodes>
            0 -1 56 -1.6334542306140065e-04</internalNodes>
          <leafValues>
            7.6498055458068848e-01 -4.2724540829658508e-01</leafValues></_></weakClassifiers></_>
    <!-- stage 9 -->
    <_>
      <maxWeakCount>3</maxWeakCount>
      <stageThreshold>5.4736328125000000e-01</stageThreshold>
      <weakClassifiers>
        <_>
          <internalNodes>
            0 -1 5 -8.8404171168804169e-02</internalNodes>
          <leafValues>
            -1. 6.3265305757522583e-01</leafValues></_>
        <_>
          <internalNodes>
            0 -1 19 -2.8973465785384178e-02</internalNodes>
          <leafValues>
            -7.8251200914382935e-01 4.8252716660499573e-01</leafValues></_>
        <_>
          <internalNodes>
            0 -1 67 -1.0059861233457923e-03</internalNodes>
          <leafValues>
            6.9722223281860352e-01 -4.4289371371269226e-01</leafValues></_></weakClassifiers></_>
    <!-- stage 10 -->
    <_>
      <maxWeakCount>4</maxWeakCount>
      <stageThreshold>5.3187119960784912e-01</stageThreshold>
      <weakClassifiers>
        <_>
          <internalNodes>
            0 -1 16 1.2156502157449722e-01</internalNodes>
          <leafValues>
            6.4705884456634521e-01 -1.</leafValues></_>
        <_>
          <internalNodes>
            0 -1 72 -8.1382766366004944e-03</internalNodes>
          <leafValues>
            7.8317177295684814e-01 -3.5611161589622498e-01</leafValues></_>
        <_>
          <internalNodes>
            0 -1 42 -4.5178181608207524e-05</internalNodes>
          <leafValues>
            6.4522844552993774e-01 -4.1220650076866150e-01</leafValues></_>
        <_>
          <internalNodes>
            0 -1 61 -4.5178181608207524e-05</internalNodes>
          <leafValues>
            7.0580774545669556e-01 -4.0430447459220886e-01</leafValues></_></weakClassifiers></_>
    <!-- stage 11 -->
    <_>
      <maxWeakCount>5</maxWeakCount>
      <stageThreshold>6.5467961132526398e-02</stageThreshold>
      <weakClassifiers>
        <_>
          <internalNodes>
            0 -1 22 -5.6002144701778889e-03</internalNodes>
          <leafValues>
            -8.0952382087707520e-01 6.2352943420410156e-01</leafValues></_>
        <_>
          <internalNodes>
            0 -1 57 -8.4958919615019113e-05</internalNodes>
          <leafValues>
            7.7978962659835815e-01 -2.7944684028625488e-01</leafValues></_>
        <_>
          <internalNodes>
            0 -1 32 -1.0381055471953005e-04</internalNodes>
          <leafValues>
            7.4032306671142578e-01 -3.2847532629966736e-01</leafValues></_>
        <_>
          <internalNodes>
            0 -1 74 -1.0472393594682217e-02</internalNodes>
          <leafValues>
            7.3941820859909058e-01 -4.1294845938682556e-01</leafValues></_>
        <_>
          <internalNodes>
            0 -1 52 7.4560078792273998e-04</internalNodes>
          <leafValues>
            -5.9642726182937622e-01 5.3737872838973999e-01</leafValues></_></weakClassifiers></_>
    <!-- stage 12 -->
    <_>
      <maxWeakCount>4</maxWeakCount>
      <stageThreshold>4.2170736938714981e-02</stageThreshold>
      <weakClassifiers>
        <_>
          <internalNodes>
            0 -1 2 9.9656999111175537e-02</internalNodes>
          <leafValues>
            6.4285713434219360e-01 -8.2608693838119507e-01</leafValues></_>
        <_>
          <internalNodes>
            0 -1 6 2.1479871124029160e-02</internalNodes>
          <leafValues>
            -3.1734755635261536e-01 9.4135892391204834e-01</leafValues></_>
        <_>
          <internalNodes>
            0 -1 30 -1.1476397048681974e-03</internalNodes>
          <leafValues>
            5.5669295787811279e-01 -5.5806428194046021e-01</leafValues></_>
        <_>
          <internalNodes>
            0 -1 85 -2.6292770635336637e-03</internalNodes>
          <leafValues>
            -8.4003180265426636e-01 4.3051561713218689e-01</leafValues></_></weakClassifiers></_>
    <!-- stage 13 -->
    <_>
      <maxWeakCount>5</maxWeakCount>
      <stageThreshold>-4.9673773348331451e-02</stageThreshold>
      <weakClassifiers>
        <_>
          <internalNodes>
            0 -1 0 5.7751121930778027e-03</internalNodes>
          <leafValues>
            6.3798218965530396e-01 -8.2222223281860352e-01</leafValues></_>
        <_>
          <internalNodes>
            0 -1 58 9.9695503711700439e-02</internalNodes>
          <leafValues>
            -2.5650069117546082e-01 9.6621763706207275e-01</leafValues></_>
        <_>
          <internalNodes>
            0 -1 82 -7.6142593752592802e-04</internalNodes>
          <leafValues>
            7.7299326658248901e-01 -3.1257373094558716e-01</leafValues></_>
        <_>
          <internalNodes>
            0 -1 79 -3.3177002333104610e-03</internalNodes>
          <leafValues>
            7.5383192300796509e-01 -4.1379380226135254e-01</leafValues></_>
        <_>
          <internalNodes>
            0 -1 15 4.1490629315376282e-02</internalNodes>
          <leafValues>
            4.3002641201019287e-01 -8.7241345643997192e-01</leafValues></_></weakClassifiers></_>
    <!-- stage 14 -->
    <_>
      <maxWeakCount>4</maxWeakCount>
      <stageThreshold>2.8610226511955261e-01</stageThreshold>
      <weakClassifiers>
        <_>
          <internalNodes>
            0 -1 13 -1.5294458717107773e-03</internalNodes>
          <leafValues>
            -8.2978725433349609e-01 6.4776116609573364e-01</leafValues></_>
        <_>
          <internalNodes>
            0 -1 38 -1.8318542279303074e-03</internalNodes>
          <leafValues>
            -5.2540010213851929e-01 5.9924119710922241e-01</leafValues></_>
        <_>
          <internalNodes>
            0 -1 76 -7.5242952443659306e-03</internalNodes>
          <leafValues>
            9.4984209537506104e-01 -2.9934534430503845e-01</leafValues></_>
        <_>
          <internalNodes>
            0 -1 64 -1.5977607108652592e-03</internalNodes>
          <leafValues>
            8.1599366664886475e-01 -4.3803039193153381e-01</leafValues></_></weakClassifiers></_>
    <!-- stage 15 -->
    <_>
      <maxWeakCount>3</maxWeakCount>
      <stageThreshold>3.7286964058876038e-01</stageThreshold>
      <weakClassifiers>
        <_>
          <internalNodes>
            0 -1 75 6.4703777432441711e-02</internalNodes>
          <leafValues>
            6.6666668653488159e-01 -1.</leafValues></_>
        <_>
          <internalNodes>
            0 -1 7 -2.4549094960093498e-03</internalNodes>
          <leafValues>
            -6.9787126779556274e-01 4.8211583495140076e-01</leafValues></_>
        <_>
          <internalNodes>
            0 -1 9 -1.0484082624316216e-02</internalNodes>
          <leafValues>
            -7.7591288089752197e-01 4.5139303803443909e-01</leafValues></_></weakClassifiers></_>
    <!-- stage 16 -->
    <_>
      <maxWeakCount>4</maxWeakCount>
      <stageThreshold>2.1192166209220886e-01</stageThreshold>
      <weakClassifiers>
        <_>
          <internalNodes>
            0 -1 25 7.3349173180758953e-03</internalNodes>
          <leafValues>
            6.7619049549102783e-01 -5.2238804101943970e-01</leafValues></_>
        <_>
          <internalNodes>
            0 -1 49 -2.5399057194590569e-03</internalNodes>
          <leafValues>
            7.7864277362823486e-01 -3.1407797336578369e-01</leafValues></_>
        <_>
          <internalNodes>
            0 -1 63 1.0277078486979008e-02</internalNodes>
          <leafValues>
            -5.0395697355270386e-01 7.1380633115768433e-01</leafValues></_>
        <_>
          <internalNodes>
            0 -1 31 -9.4742653891444206e-04</internalNodes>
          <leafValues>
            -7.3895460367202759e-01 5.1961743831634521e-01</leafValues></_></weakClassifiers></_>
    <!-- stage 17 -->
    <_>
      <maxWeakCount>5</maxWeakCount>
      <stageThreshold>2.1687409281730652e-01</stageThreshold>
      <weakClassifiers>
        <_>
          <internalNodes>
            0 -1 83 6.7098834551870823e-03</internalNodes>
          <leafValues>
            6.6978192329406738e-01 -6.0655736923217773e-01</leafValues></_>
        <_>
          <internalNodes>
            0 -1 1 -6.3863968534860760e-05</internalNodes>
          <leafValues>
            7.9065692424774170e-01 -3.3884409070014954e-01</leafValues></_>
        <_>
          <internalNodes>
            0 -1 21 2.0337752066552639e-03</internalNodes>
          <leafValues>
            -4.2403507232666016e-01 7.5599104166030884e-01</leafValues></_>
        <_>
          <internalNodes>
            0 -1 80 9.4119249843060970e-04</internalNodes>
          <leafValues>
            -3.8832327723503113e-01 7.2591948509216309e-01</leafValues></_>
        <_>
          <internalNodes>
            0 -1 70 -9.0905290562659502e-04</internalNodes>
          <leafValues>
            7.4532455205917358e-01 -4.1594815254211426e-01</leafValues></_></weakClassifiers></_>
    <!-- stage 18 -->
    <_>
      <maxWeakCount>5</maxWeakCount>
      <stageThreshold>1.6634973883628845e-01</stageThreshold>
      <weakClassifiers>
        <_>
          <internalNodes>
            0 -1 48 -4.6351668424904346e-04</internalNodes>
          <leafValues>
            -1. 5.9544157981872559e-01</leafValues></_>
        <_>
          <internalNodes>
            0 -1 40 5.2891118684783578e-05</internalNodes>
          <leafValues>
            -3.0175524950027466e-01 8.8379395008087158e-01</leafValues></_>
        <_>
          <internalNodes>
            0 -1 45 -3.1488007516600192e-04</internalNodes>
          <leafValues>
            8.1008231639862061e-01 -3.9023873209953308e-01</leafValues></_>
        <_>
          <internalNodes>
            0 -1 35 7.5969612225890160e-05</internalNodes>
          <leafValues>
            -4.7273913025856018e-01 6.9451564550399780e-01</leafValues></_>
        <_>
          <internalNodes>
            0 -1 50 -3.8635469536529854e-05</internalNodes>
          <leafValues>
            7.9028344154357910e-01 -4.3161350488662720e-01</leafValues></_></weakClassifiers></_>
    <!-- stage 19 -->
    <_>
      <maxWeakCount>5</maxWeakCount>
      <stageThreshold>3.3161377906799316e-01</stageThreshold>
      <weakClassifiers>
        <_>
          <internalNodes>
            0 -1 18 1.2494985759258270e-01</internalNodes>
          <leafValues>
            6.8674701452255249e-01 -1.</leafValues></_>
        <_>
          <internalNodes>
            0 -1 51 5.0186681619379669e-05</internalNodes>
          <leafValues>
            -4.1742661595344543e-01 9.1332316398620605e-01</leafValues></_>
        <_>
          <internalNodes>
            0 -1 4 7.2683434700593352e-04</internalNodes>
          <leafValues>
            -3.5131776332855225e-01 8.2915645837783813e-01</leafValues></_>
        <_>
          <internalNodes>
            0 -1 62 -1.2115936260670424e-04</internalNodes>
          <leafValues>
            8.0901479721069336e-01 -3.9879155158996582e-01</leafValues></_>
        <_>
          <internalNodes>
            0 -1 27 -4.0426707710139453e-04</internalNodes>
          <leafValues>
            8.8160836696624756e-01 -3.6807146668434143e-01</leafValues></_></weakClassifiers></_></stages>
  <features>
    <_>
      <rects>
        <_>
          0 0 1 12 -1.</_>
        <_>
          0 4 1 4 3.</_></rects>
      <tilted>0</tilted></_>
    <_>
      <rects>
        <_>
          0 0 3 27 -1.</_>
        <_>
          1 0 1 27 3.</_></rects>
      <tilted>0</tilted></_>
    <_>
      <rects>
        <_>
          0 0 10 28 -1.</_>
        <_>
          5 0 5 28 2.</_></rects>
      <tilted>0</tilted></_>
    <_>
      <rects>
        <_>
          0 1 18 24 -1.</_>
        <_>
          9 1 9 24 2.</_></rects>
      <tilted>0</tilted></_>
    <_>
      <rects>
        <_>
          0 4 9 3 -1.</_>
        <_>
          3 4 3 3 3.</_></rects>
      <tilted>0</tilted></_>
    <_>
      <rects>
        <_>
          0 5 8 21 -1.</_>
        <_>
          0 12 8 7 3.</_></rects>
      <tilted>0</tilted></_>
    <_>
      <rects>
        <_>
          0 8 20 8 -1.</_>
        <_>
          0 12 20 4 2.</_></rects>
      <tilted>0</tilted></_>
    <_>
      <rects>
        <_>
          0 9 1 12 -1.</_>
        <_>
          0 15 1 6 2.</_></rects>
      <tilted>0</tilted></_>
    <_>
      <rects>
        <_>
          0 15 10 2 -1.</_>
        <_>
          0 15 5 1 2.</_>
        <_>
          5 16 5 1 2.</_></rects>
      <tilted>0</tilted></_>
    <_>
      <rects>
        <_>
          0 18 6 8 -1.</_>
        <_>
          0 18 3 4 2.</_>
        <_>
          3 22 3 4 2.</_></rects>
      <tilted>0</tilted></_>
    <_>
      <rects>
        <_>
          0 19 3 10 -1.</_>
        <_>
          0 24 3 5 2.</_></rects>
      <tilted>0</tilted></_>
    <_>
      <rects>
        <_>
          0 19 20 9 -1.</_>
        <_>
          10 19 10 9 2.</_></rects>
      <tilted>0</tilted></_>
    <_>
      <rects>
        <_>
          0 22 2 1 -1.</_>
        <_>
          1 22 1 1 2.</_></rects>
      <tilted>0</tilted></_>
    <_>
      <rects>
        <_>
          0 28 4 1 -1.</_>
        <_>
          2 28 2 1 2.</_></rects>
      <tilted>0</tilted></_>
    <_>
      <rects>
        <_>
          0 29 12 1 -1.</_>
        <_>
          4 29 4 1 3.</_></rects>
      <tilted>0</tilted></_>
    <_>
      <rects>
        <_>
          1 0 14 8 -1.</_>
        <_>
          8 0 7 8 2.</_></rects>
      <tilted>0</tilted></_>
    <_>
      <rects>
        <_>
          1 0 9 24 -1.</_>
        <_>
          1 12 9 12 2.</_></rects>
      <tilted>0</tilted></_>
    <_>
      <rects>
        <_>
          1 5 8 22 -1.</_>
        <_>
          1 5 4 11 2.</_>
        <_>
          5 16 4 11 2.</_></rects>
      <tilted>0</tilted></_>
    <_>
      <rects>
        <_>
          1 7 12 10 -1.</_>
        <_>
          7 7 6 10 2.</_></rects>
      <tilted>0</tilted></_>
    <_>
      <rects>
        <_>
          1 10 4 18 -1.</_>
        <_>
          1 19 4 9 2.</_></rects>
      <tilted>0</tilted></_>
    <_>
      <rects>
        <_>
          1 20 18 10 -1.</_>
        <_>
          1 25 18 5 2.</_></rects>
      <tilted>0</tilted></_>
    <_>
      <rects>
        <_>
          1 25 8 4 -1.</_>
        <_>
          1 27 8 2 2.</_></rects>
      <tilted>0</tilted></_>
    <_>
      <rects>
        <_>
          2 2 4 9 -1.</_>
        <_>
          4 2 2 9 2.</_></rects>
      <tilted>0</tilted></_>
    <_>
      <rects>
        <_>
          2 2 2 24 -1.</_>
        <_>
          2 14 2 12 2.</_></rects>
      <tilted>0</tilted></_>
    <_>
      <rects>
        <_>
          2 2 6 28 -1.</_>
        <_>
          2 16 6 14 2.</_></rects>
      <tilted>0</tilted></_>
    <_>
      <rects>
        <_>
          2 13 5 8 -1.</_>
        <_>
          2 17 5 4 2.</_></rects>
      <tilted>0</tilted></_>
    <_>
      <rects>
        <_>
          2 25 2 3 -1.</_>
        <_>
          2 26 2 1 3.</_></rects>
      <tilted>0</tilted></_>
    <_>
      <rects>
        <_>
          3 4 4 2 -1.</_>
        <_>
          3 5 4 1 2.</_></rects>
      <tilted>0</tilted></_>
    <_>
      <rects>
        <_>
          3 11 2 1 -1.</_>
        <_>
          4 11 1 1 2.</_></rects>
      <tilted>0</tilted></_>
    <_>
      <rects>
        <_>
          3 18 4 2 -1.</_>
        <_>
          3 18 2 1 2.</_>
        <_>
          5 19 2 1 2.</_></rects>
      <tilted>0</tilted></_>
    <_>
      <rects>
        <_>
          3 20 6 1 -1.</_>
        <_>
          6 20 3 1 2.</_></rects>
      <tilted>0</tilted></_>
    <_>
      <rects>
        <_>
          3 27 6 2 -1.</_>
        <_>
          3 27 3 1 2.</_>
        <_>
          6 28 3 1 2.</_></rects>
      <tilted>0</tilted></_>
    <_>
      <rects>
        <_>
          4 0 3 3 -1.</_>
        <_>
          4 1 3 1 3.</_></rects>
      <tilted>0</tilted></_>
    <_>
      <rects>
        <_>
          4 1 4 2 -1.</_>
        <_>
          4 1 2 1 2.</_>
        <_>
          6 2 2 1 2.</_></rects>
      <tilted>0</tilted></_>
    <_>
      <rects>
        <_>
          4 10 10 13 -1.</_>
        <_>
          9 10 5 13 2.</_></rects>
      <tilted>0</tilted></_>
    <_>
      <rects>
        <_>
          4 11 1 2 -1.</_>
        <_>
          4 12 1 1 2.</_></rects>
      <tilted>0</tilted></_>
    <_>
      <rects>
        <_>
          4 17 2 1 -1.</_>
        <_>
          5 17 1 1 2.</_></rects>
      <tilted>0</tilted></_>
    <_>
      <rects>
        <_>
          4 21 4 4 -1.</_>
        <_>
          6 21 2 4 2.</_></rects>
      <tilted>0</tilted></_>
    <_>
      <rects>
        <_>
          5 2 9 4 -1.</_>
        <_>
          8 2 3 4 3.</_></rects>
      <tilted>0</tilted></_>
    <_>
      <rects>
        <_>
          5 3 4 2 -1.</_>
        <_>
          7 3 2 2 2.</_></rects>
      <tilted>0</tilted></_>
    <_>
      <rects>
        <_>
          5 8 3 2 -1.</_>
        <_>
          6 8 1 2 3.</_></rects>
      <tilted>0</tilted></_>
    <_>
      <rects>
        <_>
          5 14 11 10 -1.</_>
        <_>
          5 19 11 5 2.</_></rects>
      <tilted>0</tilted></_>
    <_>
      <rects>
        <_>
          5 17 2 4 -1.</_>
        <_>
          5 17 1 2 2.</_>
        <_>
          6 19 1 2 2.</_></rects>
      <tilted>0</tilted></_>
    <_>
      <rects>
        <_>
          5 24 2 1 -1.</_>
        <_>
          6 24 1 1 2.</_></rects>
      <tilted>0</tilted></_>
    <_>
      <rects>
        <_>
          6 9 14 18 -1.</_>
        <_>
          6 18 14 9 2.</_></rects>
      <tilted>0</tilted></_>
    <_>
      <rects>
        <_>
          6 19 3 1 -1.</_>
        <_>
          7 19 1 1 3.</_></rects>
      <tilted>0</tilted></_>
    <_>
      <rects>
        <_>
          7 0 3 21 -1.</_>
        <_>
          8 0 1 21 3.</_></rects>
      <tilted>0</tilted></_>
    <_>
      <rects>
        <_>
          7 0 7 16 -1.</_>
        <_>
          7 8 7 8 2.</_></rects>
      <tilted>0</tilted></_>
    <_>
      <rects>
        <_>
          7 5 2 2 -1.</_>
        <_>
          7 5 1 1 2.</_>
        <_>
          8 6 1 1 2.</_></rects>
      <tilted>0</tilted></_>
    <_>
      <rects>
        <_>
          7 14 5 6 -1.</_>
        <_>
          7 16 5 2 3.</_></rects>
      <tilted>0</tilted></_>
    <_>
      <rects>
        <_>
          7 20 2 1 -1.</_>
        <_>
          8 20 1 1 2.</_></rects>
      <tilted>0</tilted></_>
    <_>
      <rects>
        <_>
          7 24 3 1 -1.</_>
        <_>
          8 24 1 1 3.</_></rects>
      <tilted>0</tilted></_>
    <_>
      <rects>
        <_>
          8 0 9 8 -1.</_>
        <_>
          8 4 9 4 2.</_></rects>
      <tilted>0</tilted></_>
    <_>
      <rects>
        <_>
          8 12 6 4 -1.</_>
        <_>
          10 12 2 4 3.</_></rects>
      <tilted>0</tilted></_>
    <_>
      <rects>
        <_>
          8 12 9 9 -1.</_>
        <_>
          11 12 3 9 3.</_></rects>
      <tilted>0</tilted></_>
    <_>
      <rects>
        <_>
          8 14 2 1 -1.</_>
        <_>
          9 14 1 1 2.</_></rects>
      <tilted>0</tilted></_>
    <_>
      <rects>
        <_>
          8 19 2 1 -1.</_>
        <_>
          9 19 1 1 2.</_></rects>
      <tilted>0</tilted></_>
    <_>
      <rects>
        <_>
          9 0 2 2 -1.</_>
        <_>
          10 0 1 2 2.</_></rects>
      <tilted>0</tilted></_>
    <_>
      <rects>
        <_>
          9 4 4 18 -1.</_>
        <_>
          9 10 4 6 3.</_></rects>
      <tilted>0</tilted></_>
    <_>
      <rects>
        <_>
          9 16 5 3 -1.</_>
        <_>
          9 17 5 1 3.</_></rects>
      <tilted>0</tilted></_>
    <_>
      <rects>
        <_>
          10 9 5 20 -1.</_>
        <_>
          10 19 5 10 2.</_></rects>
      <tilted>0</tilted></_>
    <_>
      <rects>
        <_>
          10 11 6 1 -1.</_>
        <_>
          12 11 2 1 3.</_></rects>
      <tilted>0</tilted></_>
    <_>
      <rects>
        <_>
          10 14 4 2 -1.</_>
        <_>
          10 15 4 1 2.</_></rects>
      <tilted>0</tilted></_>
    <_>
      <rects>
        <_>
          10 23 10 6 -1.</_>
        <_>
          10 26 10 3 2.</_></rects>
      <tilted>0</tilted></_>
    <_>
      <rects>
        <_>
          11 10 2 6 -1.</_>
        <_>
          12 10 1 6 2.</_></rects>
      <tilted>0</tilted></_>
    <_>
      <rects>
        <_>
          11 10 6 18 -1.</_>
        <_>
          11 19 6 9 2.</_></rects>
      <tilted>0</tilted></_>
    <_>
      <rects>
        <_>
          11 12 1 16 -1.</_>
        <_>
          11 20 1 8 2.</_></rects>
      <tilted>0</tilted></_>
    <_>
      <rects>
        <_>
          11 16 2 2 -1.</_>
        <_>
          11 16 1 1 2.</_>
        <_>
          12 17 1 1 2.</_></rects>
      <tilted>0</tilted></_>
    <_>
      <rects>
        <_>
          11 17 2 4 -1.</_>
        <_>
          11 17 1 2 2.</_>
        <_>
          12 19 1 2 2.</_></rects>
      <tilted>0</tilted></_>
    <_>
      <rects>
        <_>
          11 19 1 2 -1.</_>
        <_>
          11 20 1 1 2.</_></rects>
      <tilted>0</tilted></_>
    <_>
      <rects>
        <_>
          11 19 4 2 -1.</_>
        <_>
          11 19 2 1 2.</_>
        <_>
          13 20 2 1 2.</_></rects>
      <tilted>0</tilted></_>
    <_>
      <rects>
        <_>
          12 7 3 3 -1.</_>
        <_>
          12 8 3 1 3.</_></rects>
      <tilted>0</tilted></_>
    <_>
      <rects>
        <_>
          12 16 6 5 -1.</_>
        <_>
          14 16 2 5 3.</_></rects>
      <tilted>0</tilted></_>
    <_>
      <rects>
        <_>
          12 25 1 2 -1.</_>
        <_>
          12 26 1 1 2.</_></rects>
      <tilted>0</tilted></_>
    <_>
      <rects>
        <_>
          13 3 7 12 -1.</_>
        <_>
          13 7 7 4 3.</_></rects>
      <tilted>0</tilted></_>
    <_>
      <rects>
        <_>
          13 4 7 10 -1.</_>
        <_>
          13 9 7 5 2.</_></rects>
      <tilted>0</tilted></_>
    <_>
      <rects>
        <_>
          13 9 2 12 -1.</_>
        <_>
          14 9 1 12 2.</_></rects>
      <tilted>0</tilted></_>
    <_>
      <rects>
        <_>
          13 16 3 1 -1.</_>
        <_>
          14 16 1 1 3.</_></rects>
      <tilted>0</tilted></_>
    <_>
      <rects>
        <_>
          13 23 4 2 -1.</_>
        <_>
          13 24 4 1 2.</_></rects>
      <tilted>0</tilted></_>
    <_>
      <rects>
        <_>
          14 5 6 7 -1.</_>
        <_>
          16 5 2 7 3.</_></rects>
      <tilted>0</tilted></_>
    <_>
      <rects>
        <_>
          15 2 2 16 -1.</_>
        <_>
          15 2 1 8 2.</_>
        <_>
          16 10 1 8 2.</_></rects>
      <tilted>0</tilted></_>
    <_>
      <rects>
        <_>
          15 17 4 9 -1.</_>
        <_>
          17 17 2 9 2.</_></rects>
      <tilted>0</tilted></_>
    <_>
      <rects>
        <_>
          15 18 2 2 -1.</_>
        <_>
          15 19 2 1 2.</_></rects>
      <tilted>0</tilted></_>
    <_>
      <rects>
        <_>
          16 0 4 6 -1.</_>
        <_>
          16 0 2 3 2.</_>
        <_>
          18 3 2 3 2.</_></rects>
      <tilted>0</tilted></_>
    <_>
      <rects>
        <_>
          17 2 3 26 -1.</_>
        <_>
          17 15 3 13 2.</_></rects>
      <tilted>0</tilted></_>
    <_>
      <rects>
        <_>
          18 0 1 12 -1.</_>
        <_>
          18 6 1 6 2.</_></rects>
      <tilted>0</tilted></_>
    <_>
      <rects>
        <_>
          18 0 1 18 -1.</_>
        <_>
          18 6 1 6 3.</_></rects>
      <tilted>0</tilted></_></features></cascade>
</opencv_storage>
