<?xml version="1.0"?>
<opencv_storage>
<stage14>
  <maxWeakCount>5</maxWeakCount>
  <stageThreshold>-6.6316789388656616e-01</stageThreshold>
  <weakClassifiers>
    <_>
      <internalNodes>
        0 -1 259805 7.0087146013975143e-03</internalNodes>
      <leafValues>
        -4.2105263471603394e-01 5.3846156597137451e-01</leafValues></_>
    <_>
      <internalNodes>
        0 -1 243447 -3.1553488224744797e-03</internalNodes>
      <leafValues>
        8.1796830892562866e-01 -2.8899201750755310e-01</leafValues></_>
    <_>
      <internalNodes>
        0 -1 170538 -2.1494675427675247e-02</internalNodes>
      <leafValues>
        8.6657792329788208e-01 -3.3765095472335815e-01</leafValues></_>
    <_>
      <internalNodes>
        0 -1 124670 3.2541505992412567e-02</internalNodes>
      <leafValues>
        -3.4487959742546082e-01 7.3314893245697021e-01</leafValues></_>
    <_>
      <internalNodes>
        0 -1 132281 1.2152849882841110e-01</internalNodes>
      <leafValues>
        -3.4862127900123596e-01 7.3513758182525635e-01</leafValues></_></weakClassifiers></stage14>
</opencv_storage>
